Language model created by QuickLM on Sat Dec 11 00:13:53 EST 2021
Copyright (c) 1996-2010 Carnegie Mellon University and Alexander I. Rudnicky

The model is in standard ARPA format, designed by Doug Paul while he was at MITRE.

The code that was used to produce this language model is available in Open Source.
Please visit http://www.speech.cs.cmu.edu/tools/ for more information

The (fixed) discount mass is 0.5. The backoffs are computed using the ratio method.
This model based on a corpus of 18 sentences and 27 words

\data\
ngram 1=27
ngram 2=43
ngram 3=30

\1-grams:
-0.8846 </s> -0.3010
-0.8846 <s> -0.2403
-1.8388 C -0.2947
-1.8388 CLOSE -0.2883
-1.8388 D -0.2403
-2.1399 DOWN -0.2403
-2.1399 EIGHT -0.2403
-1.8388 FIRE -0.2947
-2.1399 FIVE -0.2403
-2.1399 FOUR -0.2403
-1.8388 FOX -0.2403
-2.1399 GO -0.2979
-2.1399 HI -0.2403
-1.8388 M -0.2947
-2.1399 NINE -0.2403
-2.1399 ONE -0.2403
-1.8388 OPEN -0.2883
-2.1399 SAY -0.2979
-1.8388 SCROLL -0.2947
-2.1399 SEVEN -0.2403
-2.1399 SIX -0.2403
-2.1399 SLEEP -0.2403
-2.1399 TEN -0.2403
-2.1399 THREE -0.2403
-2.1399 TO -0.2979
-2.1399 TWO -0.2403
-2.1399 UP -0.2403

\2-grams:
-1.2553 <s> CLOSE 0.0000
-1.5563 <s> EIGHT 0.0000
-1.5563 <s> FIVE 0.0000
-1.5563 <s> FOUR 0.0000
-1.5563 <s> GO 0.0000
-1.5563 <s> NINE 0.0000
-1.5563 <s> ONE 0.0000
-1.2553 <s> OPEN 0.0000
-1.5563 <s> SAY 0.0000
-1.2553 <s> SCROLL 0.0000
-1.5563 <s> SEVEN 0.0000
-1.5563 <s> SIX 0.0000
-1.5563 <s> TEN 0.0000
-1.5563 <s> THREE 0.0000
-1.5563 <s> TWO 0.0000
-0.3010 C M 0.0000
-0.6021 CLOSE C 0.0000
-0.6021 CLOSE FIRE 0.0000
-0.3010 D </s> -0.3010
-0.3010 DOWN </s> -0.3010
-0.3010 EIGHT </s> -0.3010
-0.3010 FIRE FOX 0.0000
-0.3010 FIVE </s> -0.3010
-0.3010 FOUR </s> -0.3010
-0.3010 FOX </s> -0.3010
-0.3010 GO TO 0.0000
-0.3010 HI </s> -0.3010
-0.3010 M D 0.0000
-0.3010 NINE </s> -0.3010
-0.3010 ONE </s> -0.3010
-0.6021 OPEN C 0.0000
-0.6021 OPEN FIRE 0.0000
-0.3010 SAY HI 0.0000
-0.6021 SCROLL DOWN 0.0000
-0.6021 SCROLL UP 0.0000
-0.3010 SEVEN </s> -0.3010
-0.3010 SIX </s> -0.3010
-0.3010 SLEEP </s> -0.3010
-0.3010 TEN </s> -0.3010
-0.3010 THREE </s> -0.3010
-0.3010 TO SLEEP 0.0000
-0.3010 TWO </s> -0.3010
-0.3010 UP </s> -0.3010

\3-grams:
-0.6021 <s> CLOSE C
-0.6021 <s> CLOSE FIRE
-0.3010 <s> EIGHT </s>
-0.3010 <s> FIVE </s>
-0.3010 <s> FOUR </s>
-0.3010 <s> GO TO
-0.3010 <s> NINE </s>
-0.3010 <s> ONE </s>
-0.6021 <s> OPEN C
-0.6021 <s> OPEN FIRE
-0.3010 <s> SAY HI
-0.6021 <s> SCROLL DOWN
-0.6021 <s> SCROLL UP
-0.3010 <s> SEVEN </s>
-0.3010 <s> SIX </s>
-0.3010 <s> TEN </s>
-0.3010 <s> THREE </s>
-0.3010 <s> TWO </s>
-0.3010 C M D
-0.3010 CLOSE C M
-0.3010 CLOSE FIRE FOX
-0.3010 FIRE FOX </s>
-0.3010 GO TO SLEEP
-0.3010 M D </s>
-0.3010 OPEN C M
-0.3010 OPEN FIRE FOX
-0.3010 SAY HI </s>
-0.3010 SCROLL DOWN </s>
-0.3010 SCROLL UP </s>
-0.3010 TO SLEEP </s>

\end\